{"models": {"Ravenclaw": {"bias": 0, "weight": [-1.4854720201240508, 511.6795893924366, -6.2708087836033215, -5.116796296051105, -2.8099338327368533, -894.942589712727, -34.849072637020434, -2.1065550112293137, 142.63985661896632, 0.9785582995989283, 0.08870076975091769, -54.39292356180906, 40.50352520914368]}, "Slytherin": {"bias": 0, "weight": [26.80239286649753, 3084.6110288746245, 62.67252300867967, -30.848351332536524, 74.12227275464456, 2637.9368345042, 1108.3860948423574, -12.497008776581755, 190.70784194552107, -28.631102430513792, 0.03050923748454297, 7.9990896533275935, 782.8864565521683]}, "Gryffindor": {"bias": 0, "weight": [152.0986712932754, -2497.4687043206254, 135.4853975466612, 24.97991597061048, -16.801430911571277, 1425.0555010447172, -2654.610387330172, 161.2297203406199, 2088.964551308527, 49.88537818177102, 2.0695417806024587, 11.650500182860206, -3189.118080992162]}, "Hufflepuff": {"bias": 0, "weight": [-35.89795846217723, -5852.256374733534, -166.4392618770354, 58.51448567772606, -47.10366056454497, 1883.95865838648, 3069.7279005526643, -119.58200815677714, -712.4876030355673, 6.502020795932853, -2.0756698564207783, -230.6049080285679, 2187.8093564147425]}}, "categories": {"Ravenclaw": 0, "Slytherin": 1, "Gryffindor": 2, "Hufflepuff": 3}}