{"models": {"Ravenclaw": {"bias": 0, "weight": [346.80587529976015, 14.82010554674795, -0.1050277666989621, -0.14820105546747964, -0.04235149480415663, -20.156086693019272, -1.8059758803281674, -0.048485874068622495, 1.563258358240267, -0.016332899197722753, -0.0021918724028902573, -0.8455002702637854, 0.790333573141486]}, "Slytherin": {"bias": 0, "weight": [353.89556354916056, 9.81402221202108, 0.11321979314943803, -0.09814022212021085, 0.1528510151878496, 4.2543095367545805, 2.8494002477451414, -0.028467938947543747, 1.9614694583631263, -0.04994002163999996, 0.00011730256672411353, -0.4389348900079855, 1.7458075139888085]}, "Gryffindor": {"bias": 0, "weight": [201.7904476418865, -9.32401687678748, 0.12283131041194634, 0.09324016876787479, -0.03753011990407673, 6.2233537017940606, -2.435711786437328, 0.16084247198408008, 0.9363813786508086, 0.05885642689692288, 0.0023566943809839305, 0.3597451859312599, -3.459764828137488]}, "Hufflepuff": {"bias": 0, "weight": [80.95751398880884, -15.331967119344467, -0.1284920051554496, 0.15331967119344478, -0.06987139888089527, 9.745736665057088, 1.7135464027697909, -0.07995479456854096, -3.788928788426256, 0.014396021594442053, -0.0008725300926444245, 0.77509636762591, 0.957449480415667]}}, "categories": {"Ravenclaw": 0, "Slytherin": 1, "Gryffindor": 2, "Hufflepuff": 3}}